<?xml version="1.0"?>
<opencv_storage>
<opencv_ml_svm>
  <format>3</format>
  <svmType>C_SVC</svmType>
  <kernel>
    <type>RBF</type>
    <gamma>0.50625000000000009</gamma></kernel>
  <C>312.5</C>
  <term_criteria><epsilon>1.1920928955078125e-07</epsilon>
    <iterations>1000</iterations></term_criteria>
  <var_count>50</var_count>
  <class_count>3</class_count>
  <class_labels type_id="opencv-matrix">
    <rows>3</rows>
    <cols>1</cols>
    <dt>i</dt>
    <data>
      0 1 2</data></class_labels>
  <sv_total>89</sv_total>
  <support_vectors>
    <_>
      0.00716845877 0.0157706086 0.0229390673 0.00501792086 0.016487455
      0.0143369175 0.00716845877 0.0193548389 0.0351254456 0.0322580636
      0.0308243725 0.0265232958 0.0114695337 0.0114695337 0.0114695337
      0.0172042996 0.0193548389 0.00573476683 0.0379928313 0.0150537631
      0.0215053763 0.00215053745 0.00143369171 0.0172042996 0.108243726
      0.0293906797 0.0215053763 0.00860214978 0.00358422939
      0.00788530428 0.00573476683 0.0107526882 0.0143369175 0.0136200711
      0.0100358417 0.0186379924 0.0121863792 0.0344085991 0.0351254456
      0.0143369175 0.00860214978 0.0308243725 0.0107526882 0.0114695337
      0.017921146 0.0200716835 0.00860214978 0.0996415764 0.017921146
      0.0207885299</_>
    <_>
      0.029498525 0.01179941 0.0147492625 0.00589970499 0.0383480825
      0.02359882 0.0383480825 0.017699115 0.00589970499 0.00589970499
      0.0029498525 0.01179941 0.00884955749 0.017699115 0.00884955749
      0.0206489675 0.00884955749 0.017699115 0.0206489675 0.0147492625
      0.017699115 0.00884955749 0.0029498525 0.017699115 0.0383480825
      0.0678466111 0.02359882 0.0147492625 0.0383480825 0.029498525 0.
      0.00884955749 0.01179941 0.0619469024 0.01179941 0.00589970499
      0.0147492625 0.0265486725 0.0855457187 0.00589970499 0.01179941
      0.0147492625 0.0206489675 0.00884955749 0.0147492625 0.00589970499
      0.029498525 0.0530973449 0.017699115 0.00589970499</_>
    <_>
      0.0215053763 0.0250896048 0.0250896048 0.0258064512 0.0265232958
      0.0229390673 0.0258064512 0.0150537631 0.0143369175 0.00286738342
      0.0121863792 0.00430107489 0.0129032256 0.0143369175 0.0250896048
      0.0157706086 0.0200716835 0.0136200711 0.0064516128 0.0344085991
      0.00788530428 0.00860214978 0.0458781347 0.0121863792
      0.00931899622 0.0587813593 0.0222222209 0.00860214978 0.0200716835
      0.0523297489 0.00143369171 0.0207885299 0.0114695337 0.0401433669
      0.0308243725 0.0150537631 0.0186379924 0.00931899622 0.0602150522
      0.0293906797 0.0272401422 0.0107526882 0.0172042996 0.0114695337
      0.0107526882 0.0136200711 0.0193548389 0.0207885299 0.00716845877
      0.0143369175</_>
    <_>
      0.0332717188 0.0234134309 0.0227972884 0.0123228589 0.0240295753
      0.0117067154 0.0320394337 0.0221811458 0.0129390014 0.0104744295
      0.0104744295 0.0197165739 0.0141712874 0.0129390014 0.0227972884
      0.0246457178 0.0154035734 0.00985828694 0.0129390014 0.0252618603
      0.00677757245 0.00369685749 0.0135551449 0.0221811458 0.0271102898
      0.0523721501 0.00924214441 0.0184842888 0.0394331478 0.0178681444
      0.00184842874 0.0197165739 0.0160197169 0.0443622917 0.0172520019
      0.0117067154 0.0221811458 0.00862600096 0.062230438 0.0123228589
      0.0246457178 0.0104744295 0.0258780029 0.0129390014 0.0227972884
      0.0184842888 0.0308071468 0.0369685777 0.00924214441 0.00739371497</_>
    <_>
      0.0235546045 0.0283725914 0.0133832972 0.0112419697 0.0224839393
      0.0123126339 0.0278372578 0.0251605995 0.0176659524 0.0123126339
      0.010706638 0.0171306208 0.0251605995 0.0160599574 0.0273019262
      0.0358672366 0.0187366158 0.0176659524 0.010706638 0.023019271
      0.0112419697 0.00749464659 0.0133832972 0.0235546045 0.028907923
      0.055139184 0.0123126339 0.0117773023 0.0364025682 0.00963597372
      0.0016059957 0.0240899362 0.00802997872 0.0267665945 0.0171306208
      0.00749464659 0.0139186289 0.0123126339 0.0894004256 0.0182012841
      0.0165952891 0.0117773023 0.021413276 0.00642398279 0.0182012841
      0.0176659524 0.0273019262 0.0390792303 0.00695931446 0.00910064206</_>
    <_>
      0.0174443964 0.0235499348 0.0270388145 0.0187527258 0.0148277367
      0.0222416054 0.0222416054 0.0239860453 0.0117749674 0.0100305276
      0.0122110769 0.0135194072 0.0204971656 0.016136067 0.0248582643
      0.0209332742 0.0204971656 0.0117749674 0.017008286 0.0252943747
      0.0165721755 0.00784997828 0.0204971656 0.0209332742 0.0222416054
      0.0597470552 0.0143916262 0.0200610552 0.0222416054 0.0135194072
      0.00218054955 0.0165721755 0.0148277367 0.0292193629 0.0248582643
      0.0126471873 0.022677714 0.0122110769 0.0671609268 0.0191888362
      0.0130832968 0.0200610552 0.0248582643 0.0156999566 0.00915830769
      0.017008286 0.0261665937 0.037069343 0.0100305276 0.0126471873</_>
    <_>
      0.00510059483 0.00765089272 0.0121847549 0.0221025776 0.0102011897
      0.0102011897 0.00538396137 0.0141683193 0.0320204012 0.0603570417
      0.0192689151 0.0172853488 0.00680079311 0.0110512888 0.00906772446
      0.0212524794 0.018985549 0.0150184184 0.0453386232 0.0181354489
      0.0331538692 0.063474074 0.00878435839 0.00850099139 0.0204023793
      0.037971098 0.0300368369 0.0289033726 0.0056673279 0.0136015862
      0.0127514871 0.0138849532 0.0107679227 0.0170019828 0.0150184184
      0.0144516863 0.0110512888 0.0206857473 0.0331538692 0.0206857473
      0.0164352506 0.0164352506 0.00425049569 0.0464720875 0.0192689151
      0.0138849532 0.00595069397 0.0374043621 0.0365542658 0.0218192115</_>
    <_>
      0.00718658464 0.00771892443 0.00958211347 0.0255523026
      0.0101144528 0.0117114717 0.00718658464 0.0109129623 0.0258184709
      0.063082248 0.022624433 0.0188980568 0.00612190552 0.0135746598
      0.00585573586 0.0167686976 0.0202289056 0.0130423205 0.0444503576
      0.015704019 0.0319403782 0.0511046052 0.0114453016 0.00612190552
      0.0236891136 0.0338035673 0.033271227 0.0372637734 0.00452488661
      0.0114453016 0.0162363593 0.00904977322 0.0146393394 0.0162363593
      0.0215597544 0.0133084906 0.0101144528 0.0255523026 0.017567208
      0.0266169813 0.0143731693 0.0194303952 0.00372637738 0.0617513955
      0.0207612459 0.0141070001 0.00612190552 0.0295448489 0.0343359038
      0.024221452</_>
    <_>
      0.00894335844 0.0112620071 0.00728718098 0.0337860212 0.0135806557
      0.0135806557 0.0115932422 0.0135806557 0.0139118908 0.0440543219
      0.05895992 0.010930771 0.0105995359 0.0228552502 0.00861212332
      0.0149055971 0.0202053655 0.0188804232 0.0281550176 0.0139118908
      0.00828088727 0.0284862518 0.0149055971 0.00629347423 0.0208678357
      0.0215303078 0.0139118908 0.0119244782 0.0115932422 0.0261676051
      0.0467042066 0.00993706472 0.0135806557 0.043723084 0.0125869485
      0.0168930106 0.0162305385 0.0291487239 0.0500165597 0.0096058296
      0.0284862518 0.00629347423 0.0096058296 0.0238489565 0.040410731
      0.0165617745 0.0112620071 0.0327923149 0.0152368331 0.0235177204</_>
    <_>
      0.004822182 0.0114526823 0.00964436401 0.0340566598 0.00693188654
      0.00813743193 0.00572634116 0.00512356823 0.0126582282
      0.0548523217 0.0714285746 0.00843881816 0.00813743193 0.033152502
      0.0105485227 0.00994575024 0.0198915005 0.0162748639 0.0373719111
      0.0162748639 0.0120554548 0.0198915005 0.0244122967 0.004822182
      0.0250150692 0.0244122967 0.022001205 0.0117540685 0.0078360457
      0.0301386379 0.0587703437 0.00874020532 0.0177817959 0.0292344783
      0.0171790235 0.0229053646 0.0159734786 0.0265220013 0.0397830009
      0.0159734786 0.0274261609 0.0078360457 0.00602772739 0.0138637731
      0.0370705239 0.0105485227 0.00813743193 0.0277275462 0.0144665465
      0.0268233865</_>
    <_>
      0.00738461502 0.00984615367 0.0101538459 0.0267692301
      0.00953846145 0.0144615378 0.0076923077 0.0070769228 0.0141538456
      0.0464615375 0.0679999962 0.00923076924 0.0101538459 0.0276923068
      0.00799999945 0.0104615381 0.020615384 0.0181538463 0.0350769237
      0.0156923067 0.0135384612 0.0196923073 0.0193846151 0.0043076924
      0.027999999 0.0240000002 0.0261538457 0.0126153845 0.00799999945
      0.0399999991 0.055999998 0.0113846147 0.0135384612 0.0295384601
      0.0163076911 0.0199999996 0.0166153852 0.0273846146 0.0418461524
      0.01476923 0.0292307679 0.00984615367 0.0043076924 0.0193846151
      0.0359999985 0.00861538481 0.00615384616 0.0258461535 0.0150769232
      0.0258461535</_>
    <_>
      0.0152870985 0.0234899316 0.0182699468 0.0227442198 0.017524235
      0.0223713648 0.0212527961 0.0108128265 0.0216256529 0.0156599544
      0.0227442198 0.0134228189 0.017524235 0.0137956748 0.0178970918
      0.0152870985 0.0137956748 0.013049962 0.0190156586 0.0149142426
      0.0212527961 0.0119313942 0.0320656225 0.0115585383 0.0205070842
      0.030201342 0.0275913496 0.0447427295 0.0197613724 0.0339299031
      0.00671140943 0.0242356453 0.0272184927 0.0343027599 0.0264727809
      0.0156599544 0.0231170766 0.0104399696 0.030201342 0.0242356453
      0.0149142426 0.0275913496 0.0156599544 0.0238627885 0.0104399696
      0.017524235 0.0145413866 0.0201342274 0.0178970918 0.0108128265</_>
    <_>
      0.0259860791 0.0255220421 0.0199535955 0.0227378197 0.016241299
      0.0180974472 0.0222737826 0.0111368913 0.0227378197 0.0116009284
      0.016705336 0.00696055684 0.025058005 0.0106728533 0.0208816696
      0.00788863096 0.0190255214 0.0125290025 0.0129930396 0.0180974472
      0.0190255214 0.025058005 0.0176334102 0.016241299 0.0320185609
      0.0306264497 0.0148491878 0.0515081212 0.025058005 0.0255220421
      0.00788863096 0.0218097437 0.0204176325 0.0352668203 0.0204176325
      0.00881670509 0.0222737826 0.00881670509 0.0357308574 0.0185614843
      0.0148491878 0.0236658938 0.0232018568 0.0334106721 0.0111368913
      0.016705336 0.0218097437 0.0264501162 0.0148491878 0.00928074215</_>
    <_>
      0.0181372557 0.0259803943 0.0276960805 0.0181372557 0.0220588241
      0.0276960805 0.0171568636 0.0149509814 0.0176470596 0.0303921588
      0.0259803943 0.0237745121 0.0252451003 0.0299019627 0.020833334
      0.0176470596 0.0129901972 0.0132352952 0.0186274517 0.0161764715
      0.0142156873 0.00710784364 0.0350490212 0.00833333377
      0.00906862784 0.0237745121 0.0475490242 0.00906862784 0.0137254912
      0.0178921577 0.00514705898 0.0303921588 0.0370098054 0.0257352963
      0.0352941193 0.032352943 0.0178921577 0.00710784364 0.0316176489
      0.0289215706 0.0139705893 0.0188725498 0.0122549031 0.00343137281
      0.00686274562 0.0196078438 0.0161764715 0.011029412 0.0198529419
      0.0164215695</_>
    <_>
      0.0272232294 0.0290381126 0.0205686633 0.0151240164 0.0229885057
      0.0356926806 0.0193587411 0.018148819 0.0235934649 0.00786448829
      0.0229885057 0.0229885057 0.0393224433 0.0229885057 0.042952206
      0.0266182683 0.012099213 0.0217785835 0.0133091342 0.0169388987
      0.0193587411 0.0102843316 0.0193587411 0.0320629142 0.0145190563
      0.030852994 0.0175438598 0.00423472468 0.0211736225 0.00786448829
      0.00423472468 0.0393224433 0.0169388987 0.00907440949 0.0260133091
      0.018148819 0.0139140952 0.00846944936 0.0199637022 0.0284331515
      0.0163339376 0.0284331515 0.0284331515 0.00665456709 0.00604960648
      0.0260133091 0.0235934649 0.0139140952 0.00967937056 0.0175438598</_>
    <_>
      0.0190355331 0.0387055837 0.0171319786 0.0234771576 0.0164974611
      0.0374365486 0.0184010155 0.0126903551 0.0171319786 0.0279187821
      0.0304568522 0.0228426382 0.0355329961 0.0348984748 0.0310913697
      0.0145939086 0.00824873056 0.0101522841 0.0253807101 0.0234771576
      0.00824873056 0.0114213191 0.0348984748 0.0234771576 0.00571065955
      0.0272842627 0.0266497452 0.00571065955 0.0114213191 0.0101522841
      0.00888324901 0.0336294398 0.0228426382 0.0196700506 0.0291878171
      0.0298223346 0.0164974611 0.00697969552 0.0228426382 0.0317258872
      0.0171319786 0.013959391 0.017766498 0.00507614203 0.00824873056
      0.0260152277 0.0152284261 0.00507614203 0.013959391 0.0253807101</_>
    <_>
      0.0218340605 0.0311915148 0.0149719268 0.0249532126 0.016219588
      0.0268247034 0.0149719268 0.0155957574 0.0187149085 0.0155957574
      0.0205863994 0.0174672492 0.032439176 0.032439176 0.0330630057
      0.0149719268 0.0118527757 0.0187149085 0.013100436 0.01933874
      0.0137242666 0.0106051154 0.037429817 0.0180910788 0.0137242666
      0.0536494069 0.0174672492 0.00873362459 0.01933874 0.0106051154
      0.00561447255 0.0311915148 0.0243293811 0.0118527757 0.0311915148
      0.0274485331 0.034310665 0.0137242666 0.0262008719 0.0243293811
      0.0262008719 0.0143480971 0.0143480971 0.00311915157 0.0124766063
      0.0187149085 0.0224578902 0.0155957574 0.00686213328 0.0174672492</_>
    <_>
      0.0190555099 0.0173985083 0.0223695114 0.00911350455 0.0231980123
      0.0149130076 0.0107705053 0.0207125116 0.0190555099 0.0173985083
      0.0149130076 0.0240265131 0.0215410106 0.0207125116 0.0231980123
      0.0190555099 0.00994200539 0.0306545161 0.012427506 0.00994200539
      0.0256835129 0.00662800344 0.0107705053 0.0298260152 0.0472245254
      0.0729080364 0.0306545161 0.0140845077 0.00828500465 0.0198840108
      0.00662800344 0.0157415085 0.0198840108 0.0463960245 0.0140845077
      0.00994200539 0.00414250232 0.0198840108 0.0323115177
      0.00911350455 0.0115990061 0.0223695114 0.0198840108 0.00994200539
      0.0165700093 0.0256835129 0.00828500465 0.0356255174 0.0289975144
      0.0165700093</_>
    <_>
      0.0199999996 0.0135999992 0.0215999987 0.0104 0.0215999987
      0.0208000001 0.0120000001 0.0151999993 0.0175999999 0.0199999996
      0.0167999994 0.0255999994 0.0151999993 0.0223999992 0.0271999985
      0.0151999993 0.0167999994 0.0263999999 0.0175999999 0.00719999988
      0.0240000002 0.00799999945 0.00399999972 0.0167999994 0.0375999995
      0.0791999996 0.0263999999 0.0167999994 0.0151999993 0.0215999987
      0.00799999945 0.019199999 0.0167999994 0.0463999994 0.0135999992
      0.00879999995 0.00639999984 0.0208000001 0.0303999986 0.0223999992
      0.0127999997 0.0215999987 0.0199999996 0.0120000001 0.0127999997
      0.027999999 0.00959999952 0.0296 0.0351999998 0.0127999997</_>
    <_>
      0.0336565897 0.0296634361 0.00627495721 0.015972618 0.0114090135
      0.0302338861 0.0370792933 0.015402168 0.0211066753 0.015972618
      0.0211066753 0.0199657734 0.0296634361 0.0239589289 0.0290929843
      0.0211066753 0.00855675992 0.00741585903 0.0193953235 0.0308043361
      0.0125499144 0.00342270406 0.0330861397 0.0308043361 0.00570450677
      0.038220197 0.0285225343 0.00513405632 0.0296634361 0.00627495721
      0.00855675992 0.0342270397 0.0211066753 0.0182544217 0.0308043361
      0.0250998288 0.0336565897 0.00627495721 0.0353679433 0.031945236
      0.0142612671 0.0102681126 0.0228180271 0.00798630901 0.00627495721
      0.023388477 0.0228180271 0.00171135203 0.00912721083 0.0148317181</_>
    <_>
      0.0337748341 0.0251655634 0.00927152298 0.0231788084 0.0139072854
      0.0245033111 0.0298013259 0.0119205303 0.0145695368 0.00794702023
      0.0198675506 0.0165562909 0.0165562909 0.0304635763 0.0211920533
      0.0132450331 0.0178807955 0.0178807955 0.0139072854 0.0324503332
      0.00728476839 0.00728476839 0.0470198691 0.0192052983
      0.00662251655 0.0503311269 0.0139072854 0.00860927161 0.0324503332
      0.0271523185 0.00198675506 0.020529801 0.0225165561 0.0304635763
      0.0344370864 0.0211920533 0.0377483442 0.00331125828 0.0450331122
      0.0364238434 0.0132450331 0.00993377529 0.0165562909 0.0105960267
      0.00463576149 0.0178807955 0.0278145708 0.00529801333 0.011258278
      0.0152317882</_>
    <_>
      0.0237370655 0.0279975645 0.011564211 0.02008521 0.0127814971
      0.0194765665 0.0359099209 0.00973828323 0.0188679229 0.0237370655
      0.0170419961 0.0255629942 0.0219111368 0.0322580636 0.0237370655
      0.0164333526 0.0194765665 0.0127814971 0.0237370655 0.0194765665
      0.0188679229 0.011564211 0.0371272042 0.0249543507 0.0109555684
      0.0456482023 0.0164333526 0.00912964065 0.023128422 0.0103469258
      0.00730371242 0.023128422 0.023128422 0.0176506378 0.0316494219
      0.0267802794 0.0237370655 0.00852099806 0.0328667052 0.0310407784
      0.0164333526 0.011564211 0.02008521 0.02008521 0.00608642679
      0.023128422 0.02008521 0.00182592811 0.0139987823 0.0164333526</_>
    <_>
      0.0201680679 0.0361344554 0.00588235306 0.0252100844 0.0126050422
      0.0193277318 0.0294117648 0.0142857144 0.0126050422 0.0142857144
      0.0142857144 0.0142857144 0.0302521009 0.0294117648 0.032773111
      0.0193277318 0.00672268914 0.00672268914 0.0201680679 0.0243697483
      0.00504201697 0.0100840339 0.0806722715 0.0218487401 0.00420168089
      0.052100841 0.0159663875 0.00756302522 0.0226890761 0.021008404
      0.00588235306 0.0352941193 0.0294117648 0.0277310926 0.0403361358
      0.0285714287 0.0184873957 0.00504201697 0.0378151275 0.0294117648
      0.0142857144 0.00924369786 0.0193277318 0.00336134457
      0.00840336177 0.0184873957 0.0176470596 0.00336134457
      0.00756302522 0.01092437</_>
    <_>
      0.0256609656 0.0311041996 0.0101088649 0.0209953338 0.0155520998
      0.0264385697 0.0272161737 0.0163297057 0.0147744948 0.0108864699
      0.0171073098 0.0147744948 0.0295489896 0.0241057537 0.0318818055
      0.0163297057 0.0101088649 0.0077760499 0.0155520998 0.0241057537
      0.00622083992 0.00933125988 0.0816485211 0.0186625198
      0.00233281497 0.0458786935 0.0155520998 0.0077760499 0.0225505456
      0.0241057537 0.00155520998 0.0342146195 0.0217729397 0.0287713856
      0.0311041996 0.0272161737 0.0217729397 0.00544323493 0.0451010913
      0.0326594114 0.0178849138 0.00855365489 0.0178849138 0.00233281497
      0.00622083992 0.0256609656 0.0194401257 0.00388802495 0.0077760499
      0.0163297057</_>
    <_>
      0.0183776934 0.0266159698 0.00760456268 0.0310519636 0.0190114062
      0.0253485423 0.0183776934 0.0114068445 0.0126742711 0.0158428382
      0.0177439786 0.0139416978 0.0253485423 0.0348542444 0.0221799742
      0.0126742711 0.0120405573 0.0107731307 0.0139416978 0.0190114062
      0.00570342224 0.00697084889 0.0988593176 0.0101394169
      0.00316856778 0.0538656525 0.0247148294 0.00316856778 0.0209125467
      0.0202788338 0.00443599466 0.0297845379 0.0253485423 0.0430925228
      0.0443599485 0.0278833956 0.0316856764 0.00697084889 0.0430925228
      0.0285171103 0.0133079849 0.00823827647 0.0145754116 0.00190114067
      0.00633713556 0.0183776934 0.00887198932 0.00316856778
      0.00823827647 0.0152091254</_>
    <_>
      0.0116211502 0.0244044159 0.00639163237 0.0319581628 0.0162696093
      0.0168506671 0.0180127826 0.0133643225 0.0249854736 0.0220801849
      0.0261475872 0.0139453802 0.0162696093 0.0360255651 0.0203370135
      0.0110400924 0.014526438 0.00755374786 0.0180127826 0.0226612426
      0.00348634506 0.0104590356 0.0970366076 0.014526438 0.00232423004
      0.0435793139 0.0296339337 0.00348634506 0.0156885535 0.014526438
      0.00639163237 0.0261475872 0.0360255651 0.0185938403 0.0400929675
      0.0360255651 0.0325392187 0.00464846008 0.0429982543 0.0331202783
      0.0180127826 0.00581057509 0.00813480467 0.00639163237
      0.00639163237 0.0244044159 0.0168506671 0.00232423004
      0.00755374786 0.0203370135</_>
    <_>
      0.0127134034 0.0130766435 0.00944424234 0.00726480223 0.0170722846
      0.00835452229 0.0123501634 0.0414093733 0.00472212117
      0.00653832173 0.00363240112 0.0163458046 0.00726480223
      0.00690156221 0.00399564113 0.0239738468 0.0163458046 0.0250635669
      0.00508536166 0.00290592085 0.0468579754 0.0148928445
      0.00254268083 0.0105339633 0.0286959689 0.0377769694 0.0526698157
      0.0690156221 0.0174355246 0.0802760646 0.00181620056 0.0232473668
      0.0512168556 0.0526698157 0.00944424234 0.00399564113
      0.00508536166 0.00145296042 0.0639302582 0.00326916086
      0.00435888115 0.0214311667 0.00871776231 0.0541227758
      0.00254268083 0.0221576467 0.00762804225 0.00944424234
      0.0421358533 0.00617508171</_>
    <_>
      0.0140332645 0.0114345113 0.0135135138 0.0124740126 0.0103950109
      0.00935550965 0.0145530142 0.0395010412 0.00623700628
      0.00831600837 0.0124740126 0.0213097706 0.0103950109 0.00675675692
      0.00779625773 0.0233887732 0.0161122661 0.0218295213 0.00467775483
      0.00623700628 0.0259875264 0.00519750547 0.00935550965
      0.00831600837 0.0317047834 0.0369022861 0.0644490644 0.0135135138
      0.0155925155 0.137733892 0.00311850314 0.0166320167 0.0779625773
      0.028066529 0.0135135138 0.0109147606 0.00363825355 0.00467775483
      0.0644490644 0.00519750547 0.00831600837 0.0155925155 0.0155925155
      0.0181912687 0.00779625773 0.026507277 0.0135135138 0.00571725564
      0.029625779 0.0114345113</_>
    <_>
      0.0468036495 0.0159817338 0.0262557063 0.00684931502 0.0205479451
      0.0182648394 0.0468036495 0.0125570772 0.0182648394 0.0182648394
      0.0114155244 0.0171232875 0.0079908669 0.0125570772 0.0171232875
      0.01369863 0.0216894969 0.0102739725 0.00913241971 0.01369863
      0.0194063913 0.0079908669 0.00684931502 0.0171232875 0.028538812
      0.062785387 0.00913241971 0.0079908669 0.0376712307 0.0536529645
      0.00342465751 0.0171232875 0.0125570772 0.0536529645 0.0114155244
      0.00684931502 0.0057077622 0.0114155244 0.0502283089 0.0114155244
      0.0205479451 0.0216894969 0.0319634676 0.0182648394 0.0205479451
      0.00684931502 0.0342465751 0.0216894969 0.01369863 0.0102739725</_>
    <_>
      0.0330769233 0.0215384625 0.0215384625 0.0215384625 0.0261538457
      0.0169230774 0.0238461532 0.017692307 0.00615384616 0.00923076924
      0.0115384618 0.0146153849 0.0146153849 0.0153846154 0.0153846154
      0.0184615385 0.0169230774 0.0215384625 0.0069230767 0.0292307697
      0.0169230774 0.0107692312 0.0346153863 0.0130769229 0.0107692312
      0.063846156 0.0115384618 0.00923076924 0.0315384604 0.0199999996
      0.00230769231 0.0261538457 0.0215384625 0.0446153842 0.0315384604
      0.0169230774 0.0146153849 0.0069230767 0.0799999982 0.0238461532
      0.0215384625 0.0169230774 0.0199999996 0.00538461562 0.0123076923
      0.0115384618 0.0238461532 0.0138461534 0.0130769229 0.0084615387</_>
    <_>
      0.0125000011 0.0250000022 0.0125000011 0.0166666675 0.0666666701
      0.00833333377 0.0166666675 0.0166666675 0.00833333377 0.0250000022
      0.00416666688 0.0333333351 0.0125000011 0. 0.020833334
      0.00833333377 0.0291666687 0.00416666688 0.00416666688
      0.0500000045 0.0375000015 0. 0.00416666688 0.0333333351
      0.0583333373 0.0541666709 0.020833334 0.0291666687 0.020833334
      0.0166666675 0. 0.0250000022 0.00416666688 0.020833334
      0.00833333377 0.020833334 0.00833333377 0.0125000011 0.0333333351
      0.00416666688 0.00833333377 0.020833334 0.0458333343 0.0125000011
      0.0125000011 0.0375000015 0.0250000022 0.0333333351 0.
      0.0166666675</_>
    <_>
      0.0064516128 0.0193548389 0.0838709697 0. 0.0322580636
      0.0064516128 0. 0.0193548389 0.0129032256 0.0064516128
      0.0129032256 0.0258064512 0.0129032256 0. 0.0129032256
      0.0258064512 0.0064516128 0.0064516128 0.0193548389 0.0129032256
      0.0129032256 0.0064516128 0. 0.0129032256 0.0903225765
      0.0967741907 0.0193548389 0.0129032256 0.0258064512 0.0129032256
      0. 0.0064516128 0.0129032256 0.0129032256 0. 0.0387096778
      0.0322580636 0.0064516128 0.0967741907 0.0064516128 0.
      0.0322580636 0.0258064512 0. 0.0193548389 0.0064516128
      0.0129032256 0.0387096778 0. 0.0387096778</_>
    <_>
      0.0213903747 0. 0.00534759369 0.0160427801 0.0427807495
      0.0267379694 0.0106951874 0.0160427801 0.0213903747 0.0374331549
      0.0213903747 0.0267379694 0.0106951874 0.0213903747 0.00534759369
      0.0588235296 0.00534759369 0.0106951874 0.00534759369 0.0320855603
      0.0534759387 0.0106951874 0.0213903747 0.00534759369 0.0106951874
      0.0481283441 0.0641711205 0.0481283441 0.0106951874 0.0320855603
      0.0106951874 0.00534759369 0.0534759387 0.0534759387 0.0106951874
      0. 0.00534759369 0. 0.0374331549 0.0320855603 0.00534759369
      0.0106951874 0.00534759369 0.00534759369 0. 0.0213903747
      0.0160427801 0.00534759369 0.0106951874 0.0106951874</_>
    <_>
      0.0117773023 0.0267665945 0.0182012841 0.0128479656 0.0192719474
      0.0182012841 0.021413276 0.021413276 0.0353319049 0.0139186289
      0.0278372578 0.0203426126 0.0128479656 0.0203426126 0.0128479656
      0.0171306208 0.0160599574 0.0032119914 0.0246252678 0.0417558886
      0.00963597372 0.0192719474 0.00856531039 0.0235546045 0.0460385419
      0.00428265519 0.0128479656 0.0224839393 0.0203426126 0.00749464659
      0.0032119914 0.028907923 0.0331905782 0.0299785864 0.0171306208
      0.0513918623 0.0396145619 0.0171306208 0.010706638 0.00963597372
      0.0117773023 0.0160599574 0.0149892932 0.0139186289 0.0182012841
      0.0149892932 0.0149892932 0.0256959312 0.021413276 0.0364025682</_>
    <_>
      0.0189620759 0.0279441122 0.0319361277 0.0169660673 0.0139720561
      0.0269461069 0.0139720561 0.0279441122 0.0209580846 0.021956088
      0.021956088 0.0189620759 0.0189620759 0.010978044 0.0239520967
      0.0279441122 0.0239520967 0.00598802418 0.0229540914 0.0229540914
      0.0189620759 0.00998003967 0.0139720561 0.032934133 0.0369261466
      0.0169660673 0.021956088 0.00698602805 0.0239520967 0.010978044
      0.00698602805 0.0209580846 0.032934133 0.00998003967 0.0149700595
      0.0349301398 0.0239520967 0.0259481035 0.0129740518 0.0239520967
      0.0139720561 0.0259481035 0.0119760484 0.00698602805 0.0159680638
      0.0189620759 0.0149700595 0.0279441122 0.0159680638 0.0259481035</_>
    <_>
      0.018637158 0.0215492137 0.0168899242 0.0192195699 0.0168899242
      0.0151426904 0.0139778685 0.0168899242 0.0180547461 0.0477577187
      0.0273733251 0.0221316256 0.0168899242 0.0232964475 0.0122306347
      0.0209668018 0.018637158 0.0139778685 0.0163075142 0.0145602794
      0.0139778685 0.0198019799 0.00931857899 0.0174723361 0.0151426904
      0.0227140356 0.0297029708 0.0116482237 0.0174723361 0.0262085032
      0.0110658128 0.0192195699 0.0337798484 0.027955737 0.0192195699
      0.0314502046 0.0203843918 0.0198019799 0.0267909151 0.0232964475
      0.0232964475 0.0128130466 0.0122306347 0.00465928949 0.0256260931
      0.0262085032 0.0168899242 0.0221316256 0.0227140356 0.0256260931</_>
    <_>
      0.0131578948 0.0182748549 0.0197368413 0.0149853807 0.0241228081
      0.0263157897 0.0157163739 0.0160818715 0.0204678364 0.0142543856
      0.0222953223 0.0252192989 0.0153508773 0.020833334 0.0160818715
      0.0255847946 0.0131578948 0.0153508773 0.0160818715 0.0274122804
      0.0168128647 0.00767543865 0.0211988315 0.0314327478 0.00840643235
      0.0244883038 0.0478801169 0.00840643235 0.0201023389 0.0124269007
      0.00548245618 0.016447369 0.042397663 0.0222953223 0.0292397663
      0.0354532152 0.0336257294 0.0116959065 0.0193713456 0.022660818
      0.0197368413 0.0219298247 0.022660818 0.00950292405 0.0131578948
      0.0244883038 0.013888889 0.0168128647 0.0222953223 0.0175438598</_>
    <_>
      0.0145131089 0.0220037457 0.0145131089 0.0243445691 0.0163857676
      0.0224719103 0.00889513083 0.018726591 0.0154494382 0.0383895151
      0.0365168527 0.0234082397 0.0177902617 0.0294943824 0.0145131089
      0.0243445691 0.0154494382 0.00795880146 0.0145131089 0.0262172297
      0.0102996258 0.00608614227 0.0313670412 0.00983146112
      0.00842696615 0.0243445691 0.036048688 0.00936329551 0.00936329551
      0.0135767795 0.00655430742 0.0266853943 0.0496254675 0.0154494382
      0.0308988765 0.0365168527 0.0341760293 0.0117041199 0.0426029973
      0.0304307118 0.0154494382 0.0145131089 0.0112359552 0.0126404492
      0.0140449442 0.0177902617 0.0117041199 0.00842696615 0.017322097
      0.0276217237</_>
    <_>
      0.021113243 0.0249520149 0.0124760075 0.0143953934 0.0268714
      0.034548942 0.00959692895 0.0259117074 0.0191938579 0.0163147785
      0.0220729355 0.0268714 0.0220729355 0.021113243 0.021113243
      0.0239923224 0.017274471 0.0086372355 0.015355086 0.0287907869
      0.021113243 0.00959692895 0.0182341654 0.021113243 0.015355086
      0.0201535504 0.0355086364 0.00767754298 0.00959692895 0.0124760075
      0.0028790785 0.0297504794 0.0307101719 0.017274471 0.0201535504
      0.0451055653 0.0393474065 0.00959692895 0.0134357 0.0278310925
      0.015355086 0.0259117074 0.0163147785 0.011516314 0.00671784999
      0.0259117074 0.015355086 0.023032628 0.0220729355 0.0182341654</_>
    <_>
      0.0161616169 0.0323232338 0.0161616169 0.00404040422 0.0242424253
      0.0222222228 0.0161616169 0.00606060633 0.0141414143 0.0565656573
      0.0303030312 0.010101011 0.0161616169 0.0303030312 0.0181818195
      0.0363636389 0.0161616169 0.00606060633 0.0282828286 0.0262626279
      0.010101011 0.00808080845 0.0282828286 0.0181818195 0.00808080845
      0.0161616169 0.0323232338 0.0121212127 0.010101011 0.0121212127
      0.00606060633 0.0242424253 0.0505050533 0.0161616169 0.020202022
      0.0323232338 0.0282828286 0.020202022 0.00808080845 0.0161616169
      0.0303030312 0.0262626279 0.0222222228 0.0181818195 0.010101011
      0.0262626279 0.0121212127 0.0161616169 0.00808080845 0.0262626279</_>
    <_>
      0.0131332083 0.0262664165 0.0347091928 0.00469043152 0.0196998119
      0.0178236403 0.0131332083 0.0159474667 0.024390243 0.0281425901
      0.0168855526 0.0196998119 0.0262664165 0.00469043152 0.0253283307
      0.0206378996 0.014071295 0.0196998119 0.0196998119 0.00938086305
      0.0206378996 0.00375234522 0.00375234522 0.0440900549 0.0253283307
      0.043151971 0.0159474667 0.0131332083 0.00750469044 0.0131332083
      0.00281425891 0.0215759855 0.014071295 0.06660413 0.0168855526
      0.0168855526 0.0131332083 0.014071295 0.0609756112 0.0103189498
      0.0103189498 0.0300187618 0.0168855526 0.0196998119 0.00750469044
      0.0234521572 0.0103189498 0.0506566614 0.0103189498 0.0187617261</_>
    <_>
      0.0178571437 0.0111607146 0.0133928582 0.0178571437 0.0357142873
      0.0200892873 0.00892857183 0.0245535728 0.0200892873 0.0334821455
      0.0245535728 0.0290178582 0.0133928582 0.0424107164 0.015625
      0.03125 0.0111607146 0.00446428591 0.0334821455 0.0178571437
      0.03125 0.00446428591 0.015625 0.0066964291 0.00446428591
      0.0245535728 0.0468750037 0.015625 0.0133928582 0.0133928582
      0.0066964291 0.0178571437 0.0223214291 0.0066964291 0.0178571437
      0.0290178582 0.0245535728 0.0200892873 0.0334821455 0.015625
      0.0245535728 0.0245535728 0.0245535728 0.0133928582 0.0223214291
      0.0267857164 0.0111607146 0.0245535728 0.015625 0.015625</_>
    <_>
      0.00652173907 0.0173913036 0.0260869563 0.0152173908 0.021739129
      0.0326086953 0.0108695645 0.0108695645 0.0152173908 0.0195652172
      0.0456521735 0.0260869563 0.0130434781 0.0260869563 0.00652173907
      0.0108695645 0.0195652172 0.00434782589 0.0260869563 0.021739129
      0.021739129 0.043478258 0. 0.0152173908 0.0260869563 0.00652173907
      0.0239130426 0.021739129 0.0152173908 0.00434782589 0.0130434781
      0.0152173908 0.0347826071 0.0173913036 0.0347826071 0.0369565189
      0.021739129 0.0304347817 0.021739129 0.0391304344 0.021739129
      0.0173913036 0.00652173907 0.0130434781 0.0173913036 0.0239130426
      0.0173913036 0.0152173908 0.0130434781 0.0347826071</_>
    <_>
      0.0065645515 0.0371991247 0.0350109413 0.0175054707 0.0284463894
      0.019693654 0.0065645515 0.013129103 0.019693654 0.0503282286
      0.0590809621 0.0218818374 0.0153172873 0.0415754914 0.00875273533
      0.013129103 0.0065645515 0.0175054707 0.0175054707 0.019693654
      0.0175054707 0.00218818383 0.0218818374 0.00218818383 0.0065645515
      0.00218818383 0.0590809621 0.00875273533 0.013129103 0.00875273533
      0.00875273533 0.019693654 0.0437636748 0.0153172873 0.0437636748
      0.0437636748 0.0153172873 0.00437636767 0.013129103 0.0284463894
      0.013129103 0.026258206 0.0065645515 0.0065645515 0.00875273533
      0.032822758 0.00218818383 0.0109409187 0.032822758 0.026258206</_>
    <_>
      0.00548446085 0.0274223052 0.0164533816 0.0182815362 0.0182815362
      0.0274223052 0.0127970753 0.0109689217 0.0146252289 0.0329067633
      0.0237659961 0.0292504579 0.0127970753 0.0548446104 0.00914076809
      0.0127970753 0.0237659961 0.0109689217 0.0182815362 0.0274223052
      0.0201096907 0.0182815362 0.0420475341 0.0127970753 0.038391225
      0.00914076809 0.0457038395 0.0127970753 0.00365630724
      0.00731261447 0. 0.0329067633 0.0329067633 0.00548446085
      0.0237659961 0.0347349197 0.0329067633 0.0109689217 0.0109689217
      0.0127970753 0.0146252289 0.0146252289 0.0109689217 0.0274223052
      0.0201096907 0.0201096907 0.00365630724 0.0274223052 0.0219378434
      0.0237659961</_>
    <_>
      0.00862068962 0.0172413792 0.0107758623 0.0344827585 0.0237068962
      0.0409482755 0.019396551 0.0150862066 0.019396551 0.0280172415
      0.0387931019 0.012931034 0.0301724132 0.0258620679 0.0258620679
      0.019396551 0.0150862066 0.00646551698 0.0107758623 0.0301724132
      0.00862068962 0.012931034 0.0301724132 0.0172413792 0.0215517245
      0.012931034 0.0409482755 0.00646551698 0.0172413792 0.0280172415
      0.012931034 0.0237068962 0.0344827585 0.0280172415 0.0323275849
      0.043103449 0.0215517245 0.00862068962 0.0172413792 0.0172413792
      0.00646551698 0.0258620679 0.00646551698 0.00646551698
      0.00431034481 0.0258620679 0.012931034 0.00431034481 0.0215517245
      0.0172413792</_>
    <_>
      0.00857142825 0.0314285718 0.0314285718 0.0171428565 0.0514285713
      0.0371428579 0.0114285713 0.0142857144 0.0257142857 0.0199999996
      0.0199999996 0.0228571426 0.0199999996 0.00571428565 0.0257142857
      0.0228571426 0.0228571426 0.0171428565 0.0228571426 0.0142857144
      0.00857142825 0.00285714283 0.00857142825 0.0199999996
      0.00857142825 0.0399999991 0.0228571426 0.0171428565 0.00571428565
      0.042857144 0.00285714283 0.0257142857 0.0399999991 0.0399999991
      0.0228571426 0.0228571426 0.0199999996 0.00857142825 0.077142857
      0.00857142825 0.00285714283 0.0142857144 0.0199999996
      0.00857142825 0.00285714283 0.0171428565 0.0142857144 0.0142857144
      0.00857142825 0.00857142825</_>
    <_>
      0.017832648 0.017832648 0.0109739369 0.0233196151 0.0109739369
      0.0301783271 0.0164609049 0.0109739369 0.0233196151 0.0315500684
      0.034293551 0.0301783271 0.0164609049 0.0301783271 0.0109739369
      0.0192043893 0.0233196151 0.0109739369 0.0315500684 0.0329218097
      0.0246913582 0.00548696844 0.0164609049 0.0109739369 0.0137174213
      0.0192043893 0.0329218097 0.00823045243 0.0137174213 0.0123456791
      0.00274348422 0.0246913582 0.0452674888 0.0233196151 0.0260630995
      0.028806584 0.0219478738 0.0164609049 0.00548696844 0.0233196151
      0.017832648 0.0192043893 0.0137174213 0.0192043893 0.0109739369
      0.0274348427 0.017832648 0.0164609049 0.0246913582 0.0233196151</_>
    <_>
      0. 0.0109289614 0.0327868834 0. 0.0218579229 0.0273224041
      0.00546448072 0.0218579229 0.0382513665 0.0218579229 0.0437158458
      0.0163934417 0.0109289614 0. 0.00546448072 0.0327868834
      0.0218579229 0.00546448072 0.0601092875 0.0109289614 0.0218579229
      0.0218579229 0.0109289614 0.0327868834 0.0546448082 0.0382513665
      0.0163934417 0.0109289614 0.0109289614 0.0163934417 0.
      0.0163934417 0.0327868834 0.0109289614 0.0109289614 0.0109289614
      0.0109289614 0.00546448072 0.00546448072 0.0327868834
      0.00546448072 0.0655737668 0.0273224041 0.00546448072 0.0109289614
      0.0163934417 0.0273224041 0.0765027329 0. 0.00546448072</_>
    <_>
      0.0099200001 0.0199999996 0.0206399988 0.0126399994 0.0220799986
      0.0270399991 0.0107199997 0.0161600001 0.0211199988 0.0551999994
      0.038879998 0.0287999995 0.0179199986 0.0169599988 0.0132799996
      0.0179199986 0.0153599996 0.00591999991 0.0249600001 0.0214399993
      0.01664 0.0107199997 0.0177599993 0.0220799986 0.0163199995
      0.0489600003 0.0257599987 0.00975999981 0.0102399997 0.00319999992
      0.00767999981 0.0188800003 0.0328000002 0.0167999994 0.0169599988
      0.0355199985 0.0251199994 0.0131199993 0.0580799989 0.01712
      0.0111999996 0.019199999 0.01664 0.0055999998 0.0104 0.0275199991
      0.0100799995 0.0199999996 0.0182399992 0.0206399988</_>
    <_>
      0.0115724988 0.0285908785 0.023825733 0.0108917635 0.0245064683
      0.023825733 0.0115724988 0.0251872037 0.0224642623 0.0401633792
      0.0326752886 0.0292716138 0.025867939 0.021783527 0.025867939
      0.025867939 0.0136147048 0.000680735218 0.0190605856 0.017699115
      0.021783527 0.00544588175 0.0136147048 0.0279101431 0.0292716138
      0.0272294097 0.0231449977 0.0122532342 0.0108917635 0.00476514641
      0.00340367621 0.0245064683 0.0285908785 0.00612661708 0.0129339695
      0.0285908785 0.0292716138 0.00953029282 0.0313138217 0.0170183796
      0.0149761746 0.0292716138 0.0142954392 0.00680735242 0.0136147048
      0.023825733 0.017699115 0.0401633792 0.0156569108 0.0211027917</_>
    <_>
      0.0209424086 0.0314136147 0.0104712043 0.0314136147 0.0157068074
      0.0261780098 0.0104712043 0.0314136147 0.0104712043 0.00523560215
      0.0157068074 0.0209424086 0.0157068074 0.0261780098 0.036649216
      0.0418848172 0.0104712043 0.0104712043 0.0314136147 0.0209424086
      0.0209424086 0.00523560215 0. 0.0314136147 0.0418848172
      0.0157068074 0.0157068074 0.0157068074 0. 0.0261780098 0.
      0.0261780098 0.0314136147 0.0314136147 0.036649216 0.0104712043
      0.036649216 0.00523560215 0. 0.0261780098 0.0157068074
      0.0314136147 0.0104712043 0.0261780098 0. 0.0104712043
      0.0261780098 0.036649216 0.0157068074 0.0261780098</_>
    <_>
      0.0114555256 0.0242587589 0.0283018854 0.00673854444 0.0188679248
      0.0195417777 0.0101078162 0.0215633418 0.0289757401 0.0491913743
      0.0309973042 0.0222371966 0.0256064683 0.00808625296 0.0242587589
      0.031671159 0.0107816709 0.0229110513 0.0303234495 0.0074123987
      0.0242587589 0.00606468972 0. 0.0458221026 0.0195417777
      0.0330188684 0.0208894871 0.0094339624 0.0134770889 0.0094339624
      0.0047169812 0.0195417777 0.0168463606 0.0532344989 0.0154986521
      0.0128032342 0.00808625296 0.0161725059 0.0384097025 0.0094339624
      0.00606468972 0.0357142836 0.0222371966 0.0128032342 0.0074123987
      0.026280323 0.0094339624 0.0397574119 0.0141509427 0.0161725059</_>
    <_>
      0.012371134 0.016494846 0.0309278369 0.022680413 0.0257731974
      0.0257731974 0.0154639184 0.01443299 0.0175257735 0.037113402
      0.0340206213 0.016494846 0.016494846 0.02886598 0.010309279
      0.016494846 0.0175257735 0.010309279 0.0195876304 0.0195876304
      0.018556701 0.010309279 0.01443299 0.0134020625 0.0391752608
      0.0195876304 0.0195876304 0.0154639184 0.018556701 0.012371134
      0.00515463948 0.0237113405 0.0319587626 0.0216494855 0.0257731974
      0.0329896919 0.0175257735 0.024742268 0.0206185579 0.0113402065
      0.0237113405 0.0257731974 0.0134020625 0.007216495 0.0340206213
      0.0134020625 0.010309279 0.02886598 0.0216494855 0.016494846</_>
    <_>
      0.0171990171 0.0229320228 0.0229320228 0.0286650285 0.0147420149
      0.0180180185 0.0131040132 0.0262080263 0.0221130215 0.0360360369
      0.0368550383 0.0139230136 0.021294022 0.0245700255 0.0196560193
      0.0204750206 0.0139230136 0.00982800964 0.0196560193 0.0237510242
      0.0204750206 0.0147420149 0.0163800158 0.0139230136 0.0188370198
      0.0139230136 0.0401310399 0.0057330057 0.0139230136 0.0180180185
      0.00982800964 0.0294840299 0.0343980342 0.0229320228 0.0262080263
      0.0286650285 0.0245700255 0.0139230136 0.0131040132 0.0245700255
      0.0204750206 0.0188370198 0.0139230136 0.00819000788 0.0163800158
      0.0171990171 0.010647011 0.0180180185 0.0180180185 0.0286650285</_>
    <_>
      0.0137362638 0.0146520147 0.0247252751 0.0146520147 0.0302197803
      0.0137362638 0.0137362638 0.0329670347 0.00915750954 0.0219780225
      0.00732600736 0.0201465208 0.012820513 0.0201465208 0.0119047621
      0.0329670347 0.0192307699 0.0402930416 0.0119047621 0.0183150191
      0.0228937734 0.0183150191 0.0100732604 0.0192307699 0.00641025649
      0.0183150191 0.0338827856 0.0109890113 0.0155677656 0.0338827856
      0.00366300368 0.0228937734 0.0476190485 0.0815018341 0.0173992682
      0.0100732604 0.0228937734 0.00641025649 0.0421245433 0.0155677656
      0.0137362638 0.0146520147 0.0219780225 0.0173992682 0.012820513
      0.0146520147 0.00824175868 0.00824175868 0.0384615399
      0.00549450563</_>
    <_>
      0.0205128193 0.0216962509 0.00710059144 0.0216962509 0.0181459561
      0.0173570011 0.0201183427 0.0173570011 0.0268244576 0.0157790929
      0.0153846145 0.024852071 0.0149901379 0.024852071 0.0205128193
      0.0145956604 0.0169625245 0.0145956604 0.0220907293 0.0142011829
      0.0556212999 0.0165680461 0.0173570011 0.0220907293 0.0134122288
      0.0378698222 0.0268244576 0.0213017743 0.0177514795 0.0181459561
      0.00394477323 0.0197238661 0.0216962509 0.0185404327 0.0213017743
      0.0224852059 0.0110453647 0.00788954645 0.0429980271 0.0118343187
      0.0130177513 0.0228796843 0.0181459561 0.0205128193 0.00788954645
      0.0224852059 0.0193293877 0.0169625245 0.048915185 0.0118343187</_>
    <_>
      0.0256204959 0.0264211372 0.0240192153 0.0120096076 0.0312249791
      0.0120096076 0.0168134496 0.0256204959 0.0112089673 0.00880704541
      0.0104083261 0.0152121698 0.0272217765 0.00400320254 0.0208166521
      0.0304243397 0.0104083261 0.0176140908 0.00800640509 0.0224179346
      0.0160128102 0.00400320254 0.00640512398 0.0280224178 0.0296236984
      0.0632506013 0.0144115286 0.00560448365 0.0280224178 0.0552441925
      0. 0.0240192153 0.0104083261 0.0336268991 0.0160128102
      0.0120096076 0.012810248 0.0144115286 0.0680544451 0.0192153715
      0.0200160127 0.0192153715 0.0272217765 0.00800640509 0.0160128102
      0.0136108883 0.023218574 0.0304243397 0.012810248 0.00800640509</_>
    <_>
      0.0257903486 0.0166389346 0.0241264552 0.0191347748 0.0183028281
      0.0158069879 0.0224625617 0.0166389346 0.0158069879 0.00499168038
      0.0116472542 0.00915141404 0.021630615 0.0108153075 0.0224625617
      0.0249584019 0.0174708813 0.0158069879 0.00499168038 0.0199667215
      0.00915141404 0.00415973365 0.00499168038 0.021630615 0.0207986683
      0.0590682179 0.0116472542 0.0207986683 0.0257903486 0.0615640581
      0.00249584019 0.0183028281 0.00915141404 0.0665557384 0.0241264552
      0.00748752058 0.0141430944 0.00499168038 0.0690515786 0.0158069879
      0.0183028281 0.0116472542 0.0266222954 0.0391014963 0.0108153075
      0.0183028281 0.0224625617 0.0232945085 0.0116472542 0.00748752058</_>
    <_>
      0.0201388896 0.0229166672 0.0159722231 0.0291666668 0.0166666675
      0.0187500007 0.020833334 0.0125000002 0.0131944446 0.0069444445
      0.013888889 0.013888889 0.0145833334 0.020833334 0.0173611119
      0.0256944448 0.0194444451 0.010416667 0.0118055558 0.020833334
      0.0076388889 0.00902777817 0.0548611134 0.010416667 0.013888889
      0.0423611104 0.0229166672 0.0152777778 0.0256944448 0.0437499993
      0.00138888892 0.0256944448 0.0298611112 0.0347222239 0.0319444463
      0.0118055558 0.020833334 0.00833333377 0.0597222224 0.0201388896
      0.0229166672 0.0111111114 0.0159722231 0.0236111116 0.0076388889
      0.013888889 0.03125 0.0152777778 0.0125000002 0.00972222257</_>
    <_>
      0.0204978045 0.0168374814 0.0212298688 0.0270863827 0.021961933
      0.0204978045 0.0183016099 0.0212298688 0.0131771592 0.0102489023
      0.0131771592 0.012445095 0.0241581257 0.0212298688 0.02489019
      0.0204978045 0.0153733529 0.0117130307 0.0131771592 0.021961933
      0.0117130307 0.0102489023 0.0490483157 0.0139092244 0.0161054172
      0.0453879945 0.0183016099 0.0183016099 0.0292825773 0.0549048334
      0.00219619321 0.0197657403 0.0139092244 0.0314787701 0.0307467058
      0.0109809665 0.0183016099 0.00658857962 0.0505124442 0.0197657403
      0.021961933 0.0146412887 0.0197657403 0.0278184488 0.0109809665
      0.0109809665 0.021961933 0.0161054172 0.00512445113 0.00951683708</_>
    <_>
      0.0161645841 0.0345334299 0.0154298311 0.0183688458 0.0242468771
      0.0268185157 0.0154298311 0.0220426153 0.0220426153 0.0382071994
      0.0282880235 0.0271858927 0.0242468771 0.0180014689 0.0286554005
      0.0275532696 0.0117560616 0.00404114602 0.0213078614 0.0194709767
      0.0191035997 0.0146950772 0.0213078614 0.0257163849 0.0183688458
      0.0157972071 0.0264511388 0.0102865538 0.0172667149 0.0183688458
      0.00587803079 0.0297575314 0.0257163849 0.0253490079 0.0216752384
      0.0172667149 0.016531961 0.00991917681 0.0235121232 0.0213078614
      0.0143277002 0.0180014689 0.0220426153 0.0102865538 0.0106539307
      0.0253490079 0.016899338 0.0132255694 0.0235121232 0.0176340919</_>
    <_>
      0.0392890535 0.0121608982 0.0177736208 0.0196445268 0.0159027129
      0.0271281563 0.0355472416 0.0327408798 0.00654817559 0.0140318051
      0.00187090738 0.0196445268 0.014967259 0.0112254443 0.014967259
      0.0215154346 0.00748362951 0.0140318051 0.00467726868 0.0121608982
      0.0112254443 0.00280636107 0.0121608982 0.0233863425 0.00935453735
      0.0991580933 0.0215154346 0.00467726868 0.030869972 0.029934518
      0.000935453689 0.00935453735 0.0140318051 0.0392890535
      0.0280636102 0.0177736208 0.0112254443 0.00841908343 0.118802622
      0.0130963512 0.0205799807 0.00841908343 0.0187090747 0.00561272213
      0.0168381669 0.0243217964 0.0252572503 0.0168381669 0.00748362951
      0.00654817559</_>
    <_>
      0.0145127848 0.0152038699 0.0138217006 0.0138217006 0.0117484452
      0.0145127848 0.015894955 0.0110573601 0.0145127848 0.0041465098
      0.0228058044 0.0124395303 0.0110573601 0.00760193495 0.0145127848
      0.0145127848 0.0165860392 0.0241879746 0.00829301961 0.0131306155
      0.010366275 0.0041465098 0.00552868005 0.00967518985 0.0670352429
      0.121630959 0.0117484452 0.0165860392 0.0234968904 0.0407740138
      0.0020732549 0.00967518985 0.00898410473 0.0490670353 0.0165860392
      0.00621976517 0.00967518985 0.0193503797 0.123013131 0.0110573601
      0.010366275 0.0186592955 0.010366275 0.0200414658 0.0186592955
      0.00898410473 0.0138217006 0.0331720784 0.0124395303 0.0124395303</_>
    <_>
      0.0106951874 0.0101010101 0.0374331549 0.0231729057 0.0249554366
      0.0160427801 0.00831847824 0.0154486038 0.0190136656 0.019607842
      0.0207961965 0.0106951874 0.0124777183 0.00891265552 0.0106951874
      0.0172311347 0.033273913 0.0106951874 0.0190136656 0.0124777183
      0.0166369565 0.017825311 0.00713012461 0.00831847824 0.130124778
      0.0326797366 0.0160427801 0.0356506221 0.0136660719 0.023767082
      0.00891265552 0.0142602492 0.0148544265 0.0142602492 0.0112893637
      0.0136660719 0.0023767082 0.0207961965 0.0647652969 0.00891265552
      0.0124777183 0.0202020202 0.0130718946 0.0255496129 0.0184194893
      0.0112893637 0.00713012461 0.053475935 0.0101010101 0.0112893637</_>
    <_>
      0.0090634441 0.0132930521 0.0356495492 0.0199395772 0.0199395772
      0.0151057411 0.0114803631 0.0187311191 0.0193353482 0.0199395772
      0.0145015111 0.0163141992 0.00966767408 0.0090634441 0.0120845921
      0.0205438081 0.0271903332 0.0145015111 0.0181268882 0.0102719041
      0.0199395772 0.0265861042 0.0114803631 0.0108761331 0.0833836868
      0.0410876162 0.0151057411 0.0441087633 0.0114803631 0.0296072513
      0.00543806655 0.0090634441 0.0205438081 0.0247734152 0.0145015111
      0.0163141992 0.00785498507 0.0199395772 0.0531722084 0.00966767408
      0.0193353482 0.0187311191 0.00845921505 0.0271903332 0.0217522662
      0.0120845921 0.00664652605 0.0459214523 0.0163141992 0.0138972811</_>
    <_>
      0.0204798132 0.0152135752 0.0234054998 0.0198946763 0.0310122892
      0.0122878877 0.0163838509 0.0152135752 0.0204798132 0.0210649502
      0.0128730256 0.0239906386 0.0175541248 0.0140433004 0.0122878877
      0.0187244006 0.0204798132 0.0198946763 0.0134581625 0.0175541248
      0.0175541248 0.00234055007 0.0175541248 0.0175541248 0.0356933884
      0.0667056739 0.021650089 0.0146284383 0.00936220028 0.0315974243
      0.00409596274 0.0146284383 0.0257460512 0.0327677019 0.0269163251
      0.0198946763 0.0140433004 0.0111176129 0.0433001779 0.0228203628
      0.0181392636 0.0263311882 0.0152135752 0.0169689879 0.0204798132
      0.0122878877 0.0193095375 0.021650089 0.0222352259 0.0111176129</_>
    <_>
      0.0204558726 0.0151957916 0.0233781412 0.0169491526 0.021040326
      0.0146113383 0.0157802459 0.019286966 0.0169491526 0.0151957916
      0.0128579773 0.0175336059 0.014026884 0.0163646992 0.0128579773
      0.0181180593 0.0163646992 0.0198714193 0.0157802459 0.0222092345
      0.021040326 0.0093512563 0.0257159546 0.0157802459 0.028053768
      0.0683810636 0.0128579773 0.0187025126 0.0169491526 0.0233781412
      0.00233781408 0.0204558726 0.0321449451 0.0350672118 0.0257159546
      0.0169491526 0.0187025126 0.0128579773 0.0455873758 0.0204558726
      0.0268848613 0.0245470479 0.0169491526 0.00993570965 0.0163646992
      0.0163646992 0.0157802459 0.0257159546 0.0216247793 0.010520163</_>
    <_>
      0.0162921343 0.0252808984 0.0168539323 0.0162921343 0.0247191004
      0.0191011243 0.0146067422 0.0241573043 0.0134831462 0.0185393263
      0.0179775283 0.0241573043 0.0174157303 0.0252808984 0.0196629222
      0.0224719103 0.0162921343 0.0168539323 0.0151685392 0.0224719103
      0.0191011243 0.00449438207 0.0286516864 0.0101123601 0.0230337083
      0.0443820246 0.0235955063 0.00730337109 0.0146067422 0.0207865164
      0.00112359552 0.0207865164 0.0280898884 0.0286516864 0.0247191004
      0.0207865164 0.0202247202 0.0179775283 0.0528089888 0.0196629222
      0.0258426964 0.0275280904 0.0129213482 0.00337078655 0.0179775283
      0.0191011243 0.0174157303 0.0275280904 0.0157303363 0.0146067422</_>
    <_>
      0.0149644595 0.0228208005 0.0172091294 0.0202020202 0.0179573521
      0.0250654705 0.0164609049 0.0179573521 0.0224466901 0.0123456791
      0.0213243552 0.0164609049 0.0187055748 0.0288065858 0.0183314625
      0.0231949128 0.0187055748 0.0127197905 0.0149644595 0.0254395809
      0.0138421254 0.00823045243 0.0497568287 0.0112233451 0.0101010101
      0.0385334827 0.0276842508 0.0123456791 0.0138421254 0.0164609049
      0.00523756072 0.0239431355 0.036662925 0.0213243552 0.0299289189
      0.0239431355 0.0246913582 0.0164609049 0.0340441465 0.0280583613
      0.0172091294 0.0198279098 0.0123456791 0.00710811839 0.0160867944
      0.0198279098 0.0198279098 0.0145903481 0.0190796852 0.0216984674</_>
    <_>
      0.0111455107 0.0232198145 0.013003096 0.0263157897 0.00990712084
      0.0154798767 0.0145510836 0.0167182665 0.0157894734 0.0170278642
      0.0201238394 0.0191950463 0.0176470596 0.0312693492 0.0182662532
      0.0201238394 0.0105263162 0.0142414859 0.0102167185 0.0247678012
      0.0145510836 0.00959752314 0.0541795678 0.0114551084 0.021671826
      0.0445820428 0.0256965943 0.00712074293 0.0164086688 0.0188854486
      0.00402476778 0.0207430348 0.0346749239 0.0263157897 0.0359133147
      0.0232198145 0.0352941193 0.021671826 0.0362229124 0.0294117648
      0.0198142417 0.0167182665 0.00959752314 0.0126934983 0.0179566573
      0.0210526325 0.0133126937 0.0133126937 0.0145510836 0.0198142417</_>
    <_>
      0.0128767928 0.0237050056 0.013462102 0.0216564238 0.013169447
      0.019900497 0.00790166855 0.0201931521 0.0178519171 0.0204858072
      0.0269242041 0.0190225355 0.0146327186 0.0263388939 0.0128767928
      0.0201931521 0.0166813005 0.0128767928 0.0196078438 0.0213637706
      0.013169447 0.00702370517 0.0304360557 0.0128767928 0.0263388939
      0.0491659343 0.0295580924 0.00848697685 0.0108282119 0.0166813005
      0.00790166855 0.0184372254 0.0374597609 0.026631549 0.0321919806
      0.0260462407 0.0225343872 0.0210711155 0.0456540845 0.0231196955
      0.0204858072 0.0184372254 0.0122914836 0.00877963193 0.0260462407
      0.0166813005 0.00995024852 0.0207784604 0.0169739537 0.022241734</_>
    <_>
      0.007844368 0.0178851578 0.0100407908 0.0254157521 0.0134923123
      0.0185127072 0.00909946673 0.0100407908 0.0166300591 0.022591779
      0.0213366803 0.0219642296 0.0163162854 0.0335738957 0.0144336363
      0.0131785376 0.0203953572 0.0134923123 0.0200815815 0.0238468777
      0.00909946673 0.00909946673 0.0665202364 0.00815814268
      0.0197678059 0.0404769368 0.0269846246 0.0172576085 0.00941324141
      0.0279259495 0.00564794475 0.0229055546 0.0385942906 0.0351427682
      0.0401631631 0.0363978669 0.0401631631 0.00847191736 0.0379667394
      0.029494822 0.0181989335 0.0125509882 0.007844368 0.0103545655
      0.00941324141 0.015688736 0.00564794475 0.0166300591 0.0109821148
      0.0128647629</_>
    <_>
      0.0154882148 0.0252525248 0.0121212117 0.0262626261 0.0148148146
      0.028956227 0.0124579119 0.0175084174 0.0188552178 0.0296296291
      0.0286195278 0.0272727255 0.0168350153 0.0346801318 0.0175084174
      0.0175084174 0.0121212117 0.0117845116 0.0215488207 0.0235690232
      0.0101010101 0.00707070669 0.0558922552 0.0111111104 0.013131313
      0.0188552178 0.0370370373 0.0090909088 0.0151515147 0.0222222209
      0.00740740728 0.0205387194 0.0356902331 0.0245791227 0.0407407396
      0.0286195278 0.0353535339 0.00673400657 0.0329966322 0.0306397285
      0.0178451166 0.0148148146 0.0090909088 0.00740740728 0.00673400657
      0.0195286181 0.0114478106 0.00808080751 0.0141414134 0.0151515147</_>
    <_>
      0.0122878877 0.0198946763 0.00789935607 0.0286717378 0.0140433004
      0.0283791702 0.0102399066 0.0172615573 0.021650089 0.0321825631
      0.0257460512 0.0272088945 0.0201872438 0.0389116444 0.0175541248
      0.0155061446 0.0149210067 0.00614394387 0.0283791702 0.0234054998
      0.0169689879 0.00965476874 0.059684027 0.0102399066 0.00643651281
      0.0198946763 0.0321825631 0.0117027499 0.0122878877 0.0114101814
      0.00906963181 0.0234054998 0.0342305452 0.0254534818 0.0453481562
      0.0336454064 0.0301345829 0.00819192547 0.0201872438 0.0359859578
      0.0149210067 0.0160912815 0.00731421914 0.0117027499 0.00965476874
      0.0242832061 0.00965476874 0.00555880647 0.0160912815 0.0181392636</_>
    <_>
      0.015270506 0.0143979061 0.0126527054 0.018324608 0.021378709
      0.0253054108 0.0139616057 0.0209424086 0.018324608 0.0170157067
      0.0174520072 0.0135253053 0.0239965096 0.0135253053 0.0200698078
      0.0191972069 0.0239965096 0.0143979061 0.0157068074 0.0191972069
      0.018324608 0.0113438051 0.00654450245 0.0157068074 0.0349040143
      0.0493019186 0.0239965096 0.0296684131 0.0174520072 0.0545375235
      0.00305410125 0.0187609084 0.0135253053 0.0392670147 0.0200698078
      0.0187609084 0.0161431059 0.0139616057 0.042757418 0.0161431059
      0.0218150094 0.0174520072 0.0157068074 0.0305410121 0.0174520072
      0.00916230399 0.0148342066 0.0187609084 0.0174520072 0.0139616057</_>
    <_>
      0.0273885354 0.0273885354 0.0133757964 0.0292993635 0.0210191086
      0.0203821659 0.0203821659 0.022292994 0.0127388537 0.00764331222
      0.0127388537 0.0191082805 0.0178343952 0.0261146501 0.0229299366
      0.0178343952 0.0216560513 0.0114649683 0.00764331222 0.0146496817
      0.0146496817 0.0159235671 0.0528662428 0.0203821659 0.0216560513
      0.0299363062 0.0152866244 0.022292994 0.0191082805 0.0286624208
      0.00254777074 0.0216560513 0.0261146501 0.0273885354 0.0337579623
      0.0191082805 0.0203821659 0.0082802549 0.0312101915 0.0229299366
      0.0235668793 0.0114649683 0.0171974525 0.0152866244 0.0152866244
      0.0152866244 0.022292994 0.0114649683 0.0171974525 0.0229299366</_>
    <_>
      0.019342361 0.0183752421 0.0212765969 0.0159574468 0.0232108328
      0.0246615093 0.0183752421 0.0236943923 0.019342361 0.0116054164
      0.0140232109 0.0207930375 0.0188588016 0.0106382985 0.0188588016
      0.0207930375 0.0149903288 0.010154739 0.019342361 0.0207930375
      0.019342361 0.011121857 0.0120889749 0.0309477765 0.0328820124
      0.0420696326 0.0169245657 0.0106382985 0.0188588016 0.0294971
      0.00338491309 0.020309478 0.022243714 0.0343326889 0.0212765969
      0.0198259186 0.0140232109 0.019342361 0.038684722 0.0169245657
      0.0149903288 0.0280464217 0.0280464217 0.011121857 0.0169245657
      0.0265957452 0.0212765969 0.0270793047 0.0130560929 0.0130560929</_>
    <_>
      0.0168813858 0.0191026218 0.0253220797 0.010661928 0.0262105744
      0.021323856 0.0222123507 0.0208796095 0.0293203034 0.0173256341
      0.0177698806 0.0231008437 0.0168813858 0.0102176815 0.023545092
      0.0195468683 0.0159928929 0.00799644645 0.0217681043 0.0133274104
      0.0199911147 0.0088849403 0.0102176815 0.0324300304 0.0426477119
      0.0266548209 0.0208796095 0.00666370522 0.0257663261 0.0279875621
      0.00355397607 0.021323856 0.0253220797 0.028876055 0.0208796095
      0.0155486455 0.0151043981 0.0239893384 0.0324300304 0.0177698806
      0.0173256341 0.0275433138 0.021323856 0.00932918675 0.0191026218
      0.0222123507 0.0164371394 0.0293203034 0.0142159043 0.0168813858</_>
    <_>
      0.0177919716 0.0200729929 0.0269160587 0.0141423354 0.0250912402
      0.0255474448 0.0223540142 0.0250912402 0.0255474448 0.0150547447
      0.0168795623 0.0273722634 0.0214416049 0.0109489048 0.0214416049
      0.0228102189 0.018704379 0.00775547419 0.0200729929 0.0182481743
      0.0209854022 0.00684306584 0.0100364964 0.0323905125 0.0342153274
      0.0273722634 0.0282846708 0.0104927011 0.0260036495 0.0232664235
      0.000912408752 0.0205291975 0.0273722634 0.0173357669 0.018704379
      0.0168795623 0.0150547447 0.0214416049 0.0232664235 0.0173357669
      0.0141423354 0.0301094893 0.0250912402 0.00958029181 0.0155109484
      0.0264598541 0.0232664235 0.0250912402 0.0168795623 0.0118613141</_>
    <_>
      0.0158349331 0.0182341654 0.0287907869 0.0110364677 0.0283109397
      0.0239923224 0.0215930901 0.0249520149 0.0263915546 0.0182341654
      0.0182341654 0.0259117074 0.017274471 0.011516314 0.0139155462
      0.0206333976 0.0182341654 0.0124760075 0.0196737032 0.0235124752
      0.0201535504 0.00623800373 0.00767754298 0.0259117074 0.0374280214
      0.032629557 0.0239923224 0.0086372355 0.0206333976 0.0239923224
      0.00239923224 0.0148752397 0.0254318602 0.0249520149 0.0283109397
      0.0148752397 0.015355086 0.0196737032 0.023032628 0.021113243
      0.0143953934 0.0263915546 0.0254318602 0.00767754298 0.0182341654
      0.0254318602 0.0259117074 0.0297504794 0.0148752397 0.0158349331</_>
    <_>
      0.0221043322 0.0274093729 0.0212201588 0.01591512 0.0247568525
      0.0313881524 0.0203359872 0.0247568525 0.0225464199 0.0234305933
      0.0181255527 0.0243147667 0.0282935463 0.0137046864 0.0225464199
      0.0225464199 0.0234305933 0.00353669329 0.020778073 0.0167992935
      0.0176834669 0.0119363395 0.0106100794 0.0269672871 0.0287356321
      0.0238726791 0.0225464199 0.00928382017 0.0190097261 0.0203359872
      0.00265251985 0.0167992935 0.025641026 0.01591512 0.0198938996
      0.0194518138 0.0194518138 0.0190097261 0.0216622464 0.0163572058
      0.01591512 0.0247568525 0.0260831136 0.0123784263 0.0198938996
      0.0274093729 0.0203359872 0.025641026 0.0145888599 0.0172413792</_>
    <_>
      0.0147148985 0.0147148985 0.0318822823 0.0116492948 0.0331085213
      0.0331085213 0.0245248321 0.0269773155 0.0202329867 0.0110361744
      0.0122624161 0.019006744 0.0177805033 0.0165542606 0.0183936246
      0.0263641942 0.019006744 0.0141017782 0.0110361744 0.019006744
      0.0208461061 0.00980993267 0.0116492948 0.0165542606 0.0318822823
      0.0453709401 0.0343347639 0.0110361744 0.0202329867 0.0410790928
      0.00122624158 0.0183936246 0.0226854701 0.0165542606 0.0159411412
      0.0147148985 0.0122624161 0.0141017782 0.0306560397 0.0159411412
      0.0171673819 0.0177805033 0.0220723487 0.0183936246 0.0232985895
      0.0239117108 0.0141017782 0.0392397307 0.0122624161 0.0110361744</_>
    <_>
      0.0121449921 0.0203662179 0.0177503731 0.0160687584 0.0125186844
      0.0175635274 0.00971599389 0.0233557541 0.0267189834 0.0227952171
      0.0209267568 0.0241031386 0.0156950671 0.0186846033 0.0119581465
      0.0235426016 0.0218609869 0.00878176372 0.0257847533 0.0196188334
      0.0242899843 0.0106502241 0.0117713008 0.018310912 0.0196188334
      0.0556801185 0.0252242144 0.0145739913 0.0104633784 0.0155082215
      0.00747384131 0.0173766818 0.0276532136 0.0242899843 0.018310912
      0.0274663679 0.0173766818 0.0224215239 0.0461509712 0.0194319878
      0.0175635274 0.0201793723 0.0113976086 0.0166292973 0.0226083715
      0.0224215239 0.0132660689 0.0274663679 0.0257847533 0.0186846033</_>
    <_>
      0.0209424086 0.0314136147 0.0104712043 0.0314136147 0.0157068074
      0.0261780098 0.0104712043 0.0314136147 0.0104712043 0.00523560215
      0.0157068074 0.0209424086 0.0157068074 0.0261780098 0.036649216
      0.0418848172 0.0104712043 0.0104712043 0.0314136147 0.0209424086
      0.0209424086 0.00523560215 0. 0.0314136147 0.0418848172
      0.0157068074 0.0157068074 0.0157068074 0. 0.0261780098 0.
      0.0261780098 0.0314136147 0.0314136147 0.036649216 0.0104712043
      0.036649216 0.00523560215 0. 0.0261780098 0.0157068074
      0.0314136147 0.0104712043 0.0261780098 0. 0.0104712043
      0.0261780098 0.036649216 0.0157068074 0.0261780098</_>
    <_>
      0.014035088 0.0245614033 0.0175438598 0.0210526325 0.0350877196
      0.0315789469 0.0210526325 0.0105263162 0.0175438598 0.0315789469
      0.0245614033 0.0175438598 0.0210526325 0.028070176 0.0245614033
      0.0105263162 0.0245614033 0.00701754401 0.0175438598 0.0245614033
      0.00701754401 0.014035088 0.0350877196 0.0105263162 0.0175438598
      0.0105263162 0.0491228066 0.0105263162 0.0175438598 0.0385964923
      0.00701754401 0.0175438598 0.0526315793 0.0175438598 0.0245614033
      0.042105265 0.0210526325 0. 0. 0.0245614033 0.00701754401
      0.0385964923 0.00701754401 0.0105263162 0.00701754401 0.0175438598
      0.00701754401 0.00701754401 0.0210526325 0.0350877196</_>
    <_>
      0.017910447 0.0208955221 0.0208955221 0.0149253737 0.0298507474
      0.0298507474 0.0059701493 0.00298507465 0.0417910442 0.0477611944
      0.0388059691 0.0268656723 0.017910447 0.0149253737 0.00895522349
      0.0238805972 0.017910447 0.0059701493 0.017910447 0.0149253737
      0.0388059691 0.0149253737 0.0507462695 0.0059701493 0.0597014949
      0.0149253737 0.0059701493 0.0149253737 0.017910447 0.017910447
      0.0059701493 0.0238805972 0.017910447 0.00895522349 0.00895522349
      0.0119402986 0.00895522349 0.00895522349 0.0238805972 0.0059701493
      0.017910447 0.0507462695 0.00895522349 0.0238805972 0.0208955221
      0.0208955221 0.017910447 0.0298507474 0.00895522349 0.0119402986</_>
    <_>
      0.00964506157 0.0177469142 0.010416667 0.0169753097 0.0162037034
      0.0231481493 0.00887345709 0.0235339515 0.0227623452 0.0574845672
      0.0385802463 0.0212191362 0.0146604944 0.0250771604 0.0127314813
      0.0216049384 0.0273919757 0.00771604944 0.0273919757 0.0165895056
      0.0219907407 0.0108024692 0.0204475317 0.00887345709 0.0443672836
      0.0119598769 0.0370370373 0.0154320989 0.00540123461 0.032793209
      0.00347222225 0.0212191362 0.0362654328 0.0351080261 0.0181327164
      0.0285493825 0.0212191362 0.0135030868 0.0165895056 0.0135030868
      0.0115740746 0.0270061735 0.0073302472 0.0173611119 0.0135030868
      0.0219907407 0.0050154319 0.0150462966 0.0246913582 0.0200617276</_>
    <_>
      0.00882117078 0.0144346431 0.0148356054 0.0210505202 0.013031275
      0.0186447464 0.00942261424 0.0200481154 0.0254611075 0.0322774649
      0.0366880521 0.0212510023 0.0112269446 0.019446671 0.0108259823
      0.0248596631 0.0230553336 0.0198476352 0.0236567762 0.0160384923
      0.022253409 0.0162389725 0.0146351242 0.0246591829 0.0206495598
      0.0280673616 0.0358861275 0.0132317562 0.00942261424 0.0120288692
      0.00761828385 0.0148356054 0.0473135523 0.0258620679 0.0176423416
      0.0322774649 0.0232558139 0.0184442662 0.03127506 0.0152365677
      0.00781876501 0.0252606254 0.0146351242 0.0150360866 0.0144346431
      0.0218524449 0.00801924616 0.0200481154 0.0314755403 0.0256615877</_></support_vectors>
  <decision_functions>
    <_>
      <sv_count>30</sv_count>
      <rho>-3.1284961910764868</rho>
      <alpha>
        312.5 76.315775248048766 279.15706058275816 46.749832783956599
        114.06119689245489 312.5 312.5 312.5 95.29458935177928
        154.49146687817395 65.898691946365801 24.869852536403712
        303.77487045564988 312.5 312.5 312.5 -53.286764154268283
        -311.9534410252686 -312.5 -295.38519533744596 -312.5
        -302.69088041082119 -312.5 -49.743936611036879 -312.5
        -134.13954272358831 -312.5 -143.51862162455492
        -307.39579968998567 -187.49915509862075</alpha>
      <index>
        0 5 7 8 9 13 14 15 16 19 25 27 32 33 34 35 36 37 40 41 42 44 45
        46 47 48 49 50 51 52</index></_>
    <_>
      <sv_count>67</sv_count>
      <rho>-12.88370814835684</rho>
      <alpha>
        312.5 43.724458470775488 312.5 165.23725785800173
        253.09146383637065 312.5 8.4078844964077977 312.5 312.5
        69.614698414983792 312.5 73.43722196973151 312.5 312.5
        241.22333512229474 312.5 312.5 231.4023165725219 312.5
        227.14353062184037 141.94182886590289 153.62896005248408 312.5
        312.5 312.5 312.5 312.5 312.5 104.65033743479529 297.78289316522
        234.18831508978423 312.5 312.5 312.5 -312.5 -89.595774318062155
        -312.5 -312.5 -312.5 -312.5 -312.5 -312.5 -312.5 -312.5
        -114.83812639290292 -312.5 -106.23166198064344 -312.5 -312.5
        -312.5 -312.5 -50.232258714549204 -312.5 -312.5 -312.5
        -141.29667518741797 -312.5 -312.5 -312.5 -50.189874555490867
        -133.46213173199692 -312.5 -259.86748788386979 -312.5 -312.5
        -49.760511206180759 -312.5</alpha>
      <index>
        0 1 2 3 4 5 6 7 8 10 11 12 13 14 15 16 17 18 20 21 22 23 24 25
        26 27 28 29 30 31 32 33 34 35 54 55 56 57 58 59 60 61 62 63 64
        65 66 67 68 69 70 71 72 73 74 75 76 77 78 79 80 81 82 83 85 86
        88</index></_>
    <_>
      <sv_count>33</sv_count>
      <rho>-3.0461952752940951</rho>
      <alpha>
        312.5 312.5 312.5 171.73573169061228 219.54804943139391 312.5
        309.98836542932617 23.300078024511496 312.5 312.5 312.5 312.5
        150.47312473317237 197.14429057610383 312.5 241.54757873962006
        -312.5 -312.5 -47.468407611074277 -3.7582698101785801 -312.5
        -250.08105132706342 -289.70189384236528 -312.5 -312.5
        -206.65698518468992 -312.5 -4.1282805534346361 -312.5 -312.5
        -312.5 -199.44233029593434 -312.5</alpha>
      <index>
        36 37 38 39 40 41 42 43 44 45 46 47 48 50 51 52 53 54 55 56 61
        68 73 74 79 80 81 82 83 84 85 87 88</index></_></decision_functions></opencv_ml_svm>
</opencv_storage>
